{"meta": "ridge-regression", "coef_": [-1.43189821178822, 0.013416485143844458, -0.44380882186643467, -0.146279517846552, -1.9432321899433684, -1.2148971669289275, -2.543408581881945, -2.9148377438849904, -13.676878036533267, -0.7974364422238716, -1.5927309068896853, 14.643224995321198, -2.7950888230831685, -0.6230512797739901, -4.107140631570111, -3.9803264903878754, -4.185952544147428, -2.9599153287835844, 3.3418587672655473, -0.8407503371042212, 10.504766800621626, 4.5926059561269845, -3.7618406251176606, -4.105188562794174, -8.281308401407449, -4.622327716587031, 5.7035634382858005, -5.126763640546852, -3.3820537689143917, -4.83959853551305, 2.8935148326440046, -0.21731473902558882, 8.898072772668113, -4.373401183673448, -5.323106663357202, -0.20414601000485535, -0.391820617795689, -5.363904317826375, 16.275148547286207, 9.836089267314932, 9.487947817248124, 4.542015536743774, 3.595892071806814], "params": {"alpha": 1.0, "copy_X": true, "fit_intercept": true, "max_iter": null, "normalize": false, "random_state": null, "solver": "auto", "tol": 0.001}, "intercept_": 18.094931780587203}